booster[0]:
0:[f114<0.00114780548] yes=1,no=2,missing=1,gain=30.3023739,cover=42.6666641
	1:[f6<30.8646851] yes=3,no=4,missing=3,gain=0.534903526,cover=27.5555534
		3:leaf=-0.0713513568,cover=19.5555534
		4:leaf=-0.0333333388,cover=7.99999952
	2:[f11<0.000229266036] yes=5,no=6,missing=5,gain=2.00740242,cover=15.1111107
		5:leaf=0.13608247,cover=9.77777672
		6:leaf=0.0473684184,cover=5.33333302
booster[1]:
0:[f286<0.00210235524] yes=1,no=2,missing=1,gain=20.4406776,cover=42.6666641
	1:[f44<0.000186436198] yes=3,no=4,missing=3,gain=2.6980381,cover=18.666666
		3:leaf=0.0184615348,cover=6.22222185
		4:[f295<0.000400293677] yes=7,no=8,missing=7,gain=1.55588722,cover=12.4444437
			7:leaf=0.131506845,cover=7.11111069
			8:leaf=0.0473684184,cover=5.33333302
	2:[f11<0.000321637373] yes=5,no=6,missing=5,gain=1.12399673,cover=23.9999981
		5:leaf=-0.0711864457,cover=18.666666
		6:leaf=-0.0157894772,cover=5.33333302
booster[2]:
0:[f48<9.80677851e-06] yes=1,no=2,missing=1,gain=18.1339455,cover=42.6666641
	1:[f286<0.00162570295] yes=3,no=4,missing=3,gain=7.62971973,cover=17.3333321
		3:leaf=-0.00410959311,cover=7.11111069
		4:leaf=0.127722785,cover=10.2222214
	2:[f528<3.69371492e-06] yes=5,no=6,missing=5,gain=2.787817,cover=25.3333321
		5:leaf=-0.0712707266,cover=19.1111107
		6:leaf=0.00461538089,cover=6.22222185
booster[3]:
0:[f114<0.00114780548] yes=1,no=2,missing=1,gain=25.7499771,cover=42.5216827
	1:[f6<30.8646851] yes=3,no=4,missing=3,gain=0.52038002,cover=26.6779099
		3:leaf=-0.0688724592,cover=18.8365974
		4:leaf=-0.0313582346,cover=7.84131241
	2:[f99<0.000774754561] yes=5,no=6,missing=5,gain=2.4403038,cover=15.8437729
		5:leaf=0.123176374,cover=10.7348757
		6:leaf=0.0320448317,cover=5.10889673
booster[4]:
0:[f286<0.00210235524] yes=1,no=2,missing=1,gain=17.6846123,cover=42.5305176
	1:[f45<0.000559937849] yes=3,no=4,missing=3,gain=2.37658691,cover=19.2758408
		3:leaf=0.0155191077,cover=6.34383249
		4:[f10<0.00138584769] yes=7,no=8,missing=7,gain=1.7814846,cover=12.9320087
			7:leaf=0.120160095,cover=7.91848135
			8:leaf=0.0354843214,cover=5.01352739
	2:[f165<8.82519817e-05] yes=5,no=6,missing=5,gain=1.16688728,cover=23.2546768
		5:leaf=-0.0690625831,cover=18.0786819
		6:leaf=-0.0126475934,cover=5.17599392
booster[5]:
0:[f48<9.80677851e-06] yes=1,no=2,missing=1,gain=15.8569632,cover=42.5526352
	1:[f286<0.00162570295] yes=3,no=4,missing=3,gain=6.10863972,cover=17.8363323
		3:leaf=-0.00334102404,cover=7.06705904
		4:leaf=0.113817148,cover=10.7692738
	2:[f528<3.69371492e-06] yes=5,no=6,missing=5,gain=2.56971884,cover=24.7163029
		5:leaf=-0.0689905733,cover=18.4714317
		6:leaf=0.00410089735,cover=6.24487162
booster[6]:
0:[f520<-0.406625122] yes=1,no=2,missing=1,gain=22.5100708,cover=42.1232414
	1:[f533<0.88754189] yes=3,no=4,missing=3,gain=2.17952919,cover=16.4772587
		3:leaf=0.0285490546,cover=5.36927652
		4:leaf=0.112091862,cover=11.1079817
	2:[f533<0.825528502] yes=5,no=6,missing=5,gain=1.20599747,cover=25.6459846
		5:leaf=-0.068360433,cover=20.5757427
		6:leaf=-0.0115306703,cover=5.07024145
booster[7]:
0:[f286<0.00210235524] yes=1,no=2,missing=1,gain=15.3488684,cover=42.2002487
	1:[f44<0.000114964409] yes=3,no=4,missing=3,gain=2.55314255,cover=19.7367039
		3:leaf=0.000898286176,cover=5.05946684
		4:[f531<-5.53439944e-14] yes=7,no=8,missing=7,gain=1.68700886,cover=14.6772366
			7:leaf=0.0290537216,cover=5.17466164
			8:leaf=0.106480375,cover=9.50257492
	2:[f522<41.704052] yes=5,no=6,missing=5,gain=1.17411137,cover=22.4635468
		5:leaf=-0.0670121834,cover=17.4163895
		6:leaf=-0.0102494489,cover=5.04715776
booster[8]:
0:[f48<9.80677851e-06] yes=1,no=2,missing=1,gain=13.9603548,cover=42.2081413
	1:[f527<2.0881273e-06] yes=3,no=4,missing=3,gain=5.1475749,cover=18.1553154
		3:[f26<0.00135723245] yes=7,no=8,missing=7,gain=0.198001862,cover=12.8262758
			7:leaf=0.112834215,cover=7.60073185
			8:leaf=0.0584833995,cover=5.22554398
		4:leaf=-0.0164359715,cover=5.3290391
	2:[f528<3.69371492e-06] yes=5,no=6,missing=5,gain=2.36450911,cover=24.0528259
		5:leaf=-0.0669206306,cover=17.7821159
		6:leaf=0.00346727646,cover=6.27070951
booster[9]:
0:[f520<-0.406625122] yes=1,no=2,missing=1,gain=19.581171,cover=41.5367279
	1:[f533<0.88754189] yes=3,no=4,missing=3,gain=1.76653671,cover=16.778019
		3:leaf=0.0266854502,cover=5.40514803
		4:leaf=0.101767503,cover=11.3728714
	2:[f308<0.000417042407] yes=5,no=6,missing=5,gain=1.11309719,cover=24.7587109
		5:leaf=-0.0663048178,cover=19.7322559
		6:leaf=-0.011255431,cover=5.02645397
booster[10]:
0:[f286<0.00210235524] yes=1,no=2,missing=1,gain=13.5511723,cover=41.7663383
	1:[f44<0.000114964409] yes=3,no=4,missing=3,gain=2.21737719,cover=20.0431366
		3:leaf=0.000371566595,cover=5.07252026
		4:[f95<0.000126624174] yes=7,no=8,missing=7,gain=1.44797707,cover=14.9706163
			7:leaf=0.0979274586,cover=9.75097466
			8:leaf=0.0267463233,cover=5.21964169
	2:[f297<4.01335637e-06] yes=5,no=6,missing=5,gain=1.11074448,cover=21.7232037
		5:leaf=-0.065127641,cover=16.7231216
		6:leaf=-0.00957958028,cover=5.00008106
booster[11]:
0:[f48<9.80677851e-06] yes=1,no=2,missing=1,gain=12.3620281,cover=41.7137718
	1:[f528<1.55806083e-06] yes=3,no=4,missing=3,gain=4.44642353,cover=18.3536549
		3:[f43<0.000674156472] yes=7,no=8,missing=7,gain=0.22310257,cover=13.0732136
			7:leaf=0.104706109,cover=7.77596092
			8:leaf=0.0533849895,cover=5.29725266
		4:leaf=-0.0157958772,cover=5.28044081
	2:[f528<3.69371492e-06] yes=5,no=6,missing=5,gain=2.22401714,cover=23.3601189
		5:leaf=-0.0651184544,cover=17.0972157
		6:leaf=0.00348474761,cover=6.26290274
booster[12]:
0:[f533<0.868224442] yes=1,no=2,missing=1,gain=17.3455276,cover=40.7546768
	1:[f45<0.000489796046] yes=3,no=4,missing=3,gain=0.924873352,cover=24.9571438
		3:leaf=-0.0116759092,cover=5.25744534
		4:leaf=-0.0612747483,cover=19.6996994
	2:[f146<5.72954286e-06] yes=5,no=6,missing=5,gain=0.880906105,cover=15.7975311
		5:leaf=0.0358369462,cover=5.3623662
		6:leaf=0.0957226455,cover=10.4351654
booster[13]:
0:[f286<0.00210235524] yes=1,no=2,missing=1,gain=12.0012951,cover=41.1823044
	1:[f28<0.000189895945] yes=3,no=4,missing=3,gain=1.96478271,cover=20.2271595
		3:leaf=-0.000320998457,cover=5.07402134
		4:[f295<0.000400293677] yes=7,no=8,missing=7,gain=1.5541687,cover=15.1531382
			7:leaf=0.0979904681,cover=8.41434765
			8:leaf=0.028887406,cover=6.73879004
	2:[f532<830.713501] yes=5,no=6,missing=5,gain=1.10890007,cover=20.9551468
		5:leaf=-0.0639532134,cover=15.8632326
		6:leaf=-0.00876388326,cover=5.09191322
booster[14]:
0:[f48<9.80677851e-06] yes=1,no=2,missing=1,gain=10.9643774,cover=41.0647049
	1:[f286<0.00162570295] yes=3,no=4,missing=3,gain=3.8298707,cover=18.4280872
		3:leaf=-0.002959857,cover=6.99659824
		4:leaf=0.0891207382,cover=11.431489
	2:[f528<3.69371492e-06] yes=5,no=6,missing=5,gain=2.11099577,cover=22.6366158
		5:leaf=-0.0634984598,cover=16.396986
		6:leaf=0.00372837274,cover=6.23962975
booster[15]:
0:[f520<-0.447120607] yes=1,no=2,missing=1,gain=15.7388592,cover=39.8729172
	1:[f0<84.5] yes=3,no=4,missing=3,gain=0.764350891,cover=15.7800074
		3:leaf=0.0343639404,cover=5.39911222
		4:leaf=0.0904228687,cover=10.3808956
	2:[f308<0.000619632658] yes=5,no=6,missing=5,gain=1.75568914,cover=24.0929108
		5:leaf=-0.0638785884,cover=19.0880394
		6:leaf=0.00193888473,cover=5.00487041
booster[16]:
0:[f286<0.00210235524] yes=1,no=2,missing=1,gain=10.5658989,cover=40.4921532
	1:[f44<0.000114964409] yes=3,no=4,missing=3,gain=1.76026297,cover=20.3504562
		3:leaf=-0.00102411665,cover=5.10544014
		4:[f531<-5.53439944e-14] yes=7,no=8,missing=7,gain=1.409688,cover=15.2450171
			7:leaf=0.0196039099,cover=5.33310223
			8:leaf=0.0870179906,cover=9.91191483
	2:[f304<0.00177216483] yes=5,no=6,missing=5,gain=1.05698013,cover=20.141695
		5:leaf=-0.0622567497,cover=15.1222563
		6:leaf=-0.00793879572,cover=5.01943922
booster[17]:
0:[f48<9.80677851e-06] yes=1,no=2,missing=1,gain=9.77899933,cover=40.2805748
	1:[f527<2.0881273e-06] yes=3,no=4,missing=3,gain=3.3698225,cover=18.3450165
		3:[f26<0.00135723245] yes=7,no=8,missing=7,gain=0.312467575,cover=13.2147989
			7:leaf=0.0928382576,cover=7.88523054
			8:leaf=0.0441471897,cover=5.32956791
		4:leaf=-0.0143994065,cover=5.13021851
	2:[f528<3.69371492e-06] yes=5,no=6,missing=5,gain=2.00330114,cover=21.9355564
		5:leaf=-0.0620576441,cover=15.7101326
		6:leaf=0.00381630333,cover=6.22542381
booster[18]:
0:[f520<-0.447120607] yes=1,no=2,missing=1,gain=13.9337587,cover=38.853199
	1:[f0<84.5] yes=3,no=4,missing=3,gain=0.673418999,cover=15.6691599
		3:leaf=0.0320731364,cover=5.38496161
		4:leaf=0.0847403556,cover=10.2841978
	2:[f537<0.0325133055] yes=5,no=6,missing=5,gain=1.56698513,cover=23.1840401
		5:leaf=-0.0621879771,cover=18.1762142
		6:leaf=0.0005265238,cover=5.00782585
booster[19]:
0:[f286<0.00210235524] yes=1,no=2,missing=1,gain=9.41775608,cover=39.7345467
	1:[f28<0.000189895945] yes=3,no=4,missing=3,gain=1.57551479,cover=20.3542614
		3:leaf=-0.0014521234,cover=5.08504534
		4:[f295<0.000400293677] yes=7,no=8,missing=7,gain=1.50168943,cover=15.2692165
			7:leaf=0.0883421376,cover=8.44741249
			8:leaf=0.0223363768,cover=6.82180309
	2:[f523<388.279541] yes=5,no=6,missing=5,gain=0.965344429,cover=19.3802834
		5:leaf=-0.0082337372,cover=5.00562286
		6:leaf=-0.0606520586,cover=14.3746605
booster[20]:
0:[f48<9.80677851e-06] yes=1,no=2,missing=1,gain=8.69874287,cover=39.4312019
	1:[f528<1.55806083e-06] yes=3,no=4,missing=3,gain=3.01735067,cover=18.241621
		3:[f26<0.00135723245] yes=7,no=8,missing=7,gain=0.293813705,cover=13.1616716
			7:leaf=0.0877351165,cover=7.86003542
			8:leaf=0.0412702896,cover=5.30163622
		4:leaf=-0.0141511289,cover=5.07994938
	2:[f528<3.69371492e-06] yes=5,no=6,missing=5,gain=1.90671802,cover=21.1895809
		5:leaf=-0.0606922582,cover=14.9904861
		6:leaf=0.00402256334,cover=6.19909477
booster[21]:
0:[f533<0.868224442] yes=1,no=2,missing=1,gain=12.5248785,cover=37.7346878
	1:[f45<0.00051507575] yes=3,no=4,missing=3,gain=0.78758955,cover=22.4960728
		3:leaf=-0.0111804912,cover=5.29650164
		4:leaf=-0.0575178154,cover=17.1995697
	2:[f532<303.974854] yes=5,no=6,missing=5,gain=0.536414146,cover=15.238616
		5:leaf=0.0307776388,cover=5.04802847
		6:leaf=0.08009734,cover=10.190587
booster[22]:
0:[f286<0.00210235524] yes=1,no=2,missing=1,gain=8.40849876,cover=38.9055061
	1:[f28<0.000189895945] yes=3,no=4,missing=3,gain=1.39811039,cover=20.2928104
		3:leaf=-0.00149609323,cover=5.06943035
		4:[f295<0.000400293677] yes=7,no=8,missing=7,gain=1.41011572,cover=15.2233791
			7:leaf=0.0839228779,cover=8.39674282
			8:leaf=0.0202508997,cover=6.82663631
	2:[f532<818.675964] yes=5,no=6,missing=5,gain=0.973957539,cover=18.6126957
		5:leaf=-0.0598139279,cover=13.5917511
		6:leaf=-0.0071645542,cover=5.02094507
booster[23]:
0:[f48<9.80677851e-06] yes=1,no=2,missing=1,gain=7.81620502,cover=38.5021896
	1:[f535<0.940613747] yes=3,no=4,missing=3,gain=2.70101976,cover=18.0234737
		3:[f43<0.000674156472] yes=7,no=8,missing=7,gain=0.225088596,cover=12.9767361
			7:leaf=0.0829056725,cover=7.79840803
			8:leaf=0.0396618918,cover=5.17832851
		4:leaf=-0.0133231198,cover=5.04673624
	2:[f528<3.69371492e-06] yes=5,no=6,missing=5,gain=1.81558394,cover=20.4787178
		5:leaf=-0.0595083311,cover=14.3041048
		6:leaf=0.00410166895,cover=6.17461252
booster[24]:
0:[f520<-0.447120607] yes=1,no=2,missing=1,gain=11.5001659,cover=36.610527
	1:[f0<84.5] yes=3,no=4,missing=3,gain=0.502626419,cover=15.0635328
		3:leaf=0.0297219213,cover=5.18353653
		4:leaf=0.0770706236,cover=9.8799963
	2:[f524<4309.375] yes=5,no=6,missing=5,gain=1.43790722,cover=21.5469933
		5:leaf=-0.0605772994,cover=16.5384998
		6:leaf=0.000145597282,cover=5.00849342
booster[25]:
0:[f286<0.00210235524] yes=1,no=2,missing=1,gain=7.46364975,cover=38.0319557
	1:[f44<0.000114964409] yes=3,no=4,missing=3,gain=1.26412368,cover=20.1996441
		3:leaf=-0.00179998821,cover=5.08663082
		4:[f531<-5.53439944e-14] yes=7,no=8,missing=7,gain=1.30430269,cover=15.1130133
			7:leaf=0.0121306367,cover=5.34760046
			8:leaf=0.0752225742,cover=9.76541328
	2:[f115<0.00178161648] yes=5,no=6,missing=5,gain=0.898665428,cover=17.8323135
		5:leaf=-0.0583819747,cover=12.8287163
		6:leaf=-0.00729312375,cover=5.00359678
booster[26]:
0:[f48<9.80677851e-06] yes=1,no=2,missing=1,gain=7.02037239,cover=37.506855
	1:[f43<0.00108353212] yes=3,no=4,missing=3,gain=2.33693886,cover=17.7282982
		3:[f27<0.000890955213] yes=7,no=8,missing=7,gain=0.317927361,cover=12.6317902
			7:leaf=0.0367634818,cover=5.4528904
			8:leaf=0.0817236677,cover=7.17889929
		4:leaf=-0.0110189626,cover=5.09650803
	2:[f528<3.69371492e-06] yes=5,no=6,missing=5,gain=1.73332858,cover=19.7785568
		5:leaf=-0.058396142,cover=13.6262798
		6:leaf=0.00422057835,cover=6.15227795
booster[27]:
0:[f520<-0.447120607] yes=1,no=2,missing=1,gain=10.2960682,cover=35.439003
	1:[f0<84.5] yes=3,no=4,missing=3,gain=0.483094215,cover=14.7473564
		3:leaf=0.0276101064,cover=5.14061785
		4:leaf=0.0737022385,cover=9.60673809
	2:[f290<0.0174059831] yes=5,no=6,missing=5,gain=1.30549002,cover=20.6916466
		5:leaf=-0.0595807992,cover=15.5022192
		6:leaf=-0.00173419376,cover=5.18942833
booster[28]:
0:[f286<0.00210235524] yes=1,no=2,missing=1,gain=6.66077805,cover=37.1398888
	1:[f4<188] yes=3,no=4,missing=3,gain=1.17888021,cover=20.0467911
		3:[f78<6.16045727e-05] yes=7,no=8,missing=7,gain=0.91849947,cover=14.7305031
			7:leaf=0.0711599067,cover=9.06363678
			8:leaf=0.0169243123,cover=5.66686583
		4:leaf=-0.00149643177,cover=5.31628895
	2:[f302<0.000730572036] yes=5,no=6,missing=5,gain=0.866754293,cover=17.0930977
		5:leaf=-0.0574195273,cover=12.0696182
		6:leaf=-0.00698998524,cover=5.02347994
booster[29]:
0:[f48<9.80677851e-06] yes=1,no=2,missing=1,gain=6.24652958,cover=36.5228233
	1:[f43<0.00108353212] yes=3,no=4,missing=3,gain=2.09542656,cover=17.4755707
		3:[f525<0.0158439539] yes=7,no=8,missing=7,gain=0.298766136,cover=12.4476137
			7:leaf=0.0775784776,cover=7.14294767
			8:leaf=0.0342091322,cover=5.30466652
		4:leaf=-0.0107638817,cover=5.02795601
	2:[f528<3.69371492e-06] yes=5,no=6,missing=5,gain=1.65381837,cover=19.0472546
		5:leaf=-0.0573147349,cover=12.9215307
		6:leaf=0.00436612032,cover=6.12572336
booster[30]:
0:[f520<-0.447120607] yes=1,no=2,missing=1,gain=9.30609608,cover=34.2487144
	1:[f0<84.5] yes=3,no=4,missing=3,gain=0.434163094,cover=14.3434248
		3:leaf=0.0264312271,cover=5.05852795
		4:leaf=0.0707354322,cover=9.28489685
	2:[f290<0.0174059831] yes=5,no=6,missing=5,gain=1.25087404,cover=19.9052906
		5:leaf=-0.0586185046,cover=14.7934027
		6:leaf=-0.00142241817,cover=5.11188889
booster[31]:
0:[f286<0.00210235524] yes=1,no=2,missing=1,gain=5.97856236,cover=36.3123589
	1:[f44<0.000114964409] yes=3,no=4,missing=3,gain=1.13856053,cover=19.9218578
		3:leaf=-0.00360827637,cover=5.10000277
		4:[f95<0.000126624174] yes=7,no=8,missing=7,gain=1.18673897,cover=14.8218546
			7:leaf=0.0694317445,cover=9.57372665
			8:leaf=0.00925104599,cover=5.24812746
	2:[f300<0.00020904305] yes=5,no=6,missing=5,gain=0.796053171,cover=16.390501
		5:leaf=-0.0562100522,cover=11.3794737
		6:leaf=-0.00731892604,cover=5.01102734
booster[32]:
0:[f114<0.000422203622] yes=1,no=2,missing=1,gain=5.66623783,cover=35.5371056
	1:[f78<0.00027414714] yes=3,no=4,missing=3,gain=4.82574844,cover=23.4530945
		3:[f291<0.00275743846] yes=5,no=6,missing=5,gain=0.500596106,cover=10.1504583
			5:leaf=0.000953365234,cover=5.08806849
			6:leaf=-0.041403316,cover=5.06239033
		4:[f43<0.00068841537] yes=7,no=8,missing=7,gain=0.283251762,cover=13.3026361
			7:leaf=0.0794808716,cover=8.21897888
			8:leaf=0.0358869694,cover=5.08365726
	2:leaf=-0.052668687,cover=12.0840111
booster[33]:
0:[f533<0.868224442] yes=1,no=2,missing=1,gain=8.46648788,cover=33.0037346
	1:[f45<0.000525769661] yes=3,no=4,missing=3,gain=0.754877329,cover=19.3901176
		3:leaf=-0.00767644634,cover=5.01005173
		4:leaf=-0.0541112833,cover=14.380065
	2:[f523<597.942139] yes=5,no=6,missing=5,gain=0.236065388,cover=13.613616
		5:leaf=0.0303868558,cover=5.26703453
		6:leaf=0.0682014674,cover=8.34658146
booster[34]:
0:[f286<0.00210235524] yes=1,no=2,missing=1,gain=5.34218597,cover=35.3927269
	1:[f4<188] yes=3,no=4,missing=3,gain=1.11272764,cover=19.7279739
		3:[f520<0.0585169904] yes=7,no=8,missing=7,gain=0.859661341,cover=14.465023
			7:leaf=0.011998388,cover=5.09711838
			8:leaf=0.0650091767,cover=9.36790466
		4:leaf=-0.00417617662,cover=5.26294994
	2:[f532<774.315247] yes=5,no=6,missing=5,gain=0.74862504,cover=15.664753
		5:leaf=-0.055328548,cover=10.6010466
		6:leaf=-0.00754526397,cover=5.06370592
booster[35]:
0:[f114<0.000422203622] yes=1,no=2,missing=1,gain=5.17325878,cover=34.4753304
	1:[f78<0.00027414714] yes=3,no=4,missing=3,gain=4.22398472,cover=22.9381351
		3:leaf=-0.0204437152,cover=9.91475964
		4:[f43<0.00068841537] yes=5,no=6,missing=5,gain=0.293777466,cover=13.0233746
			5:leaf=0.0762602761,cover=8.00193119
			6:leaf=0.0332629904,cover=5.02144289
	2:leaf=-0.0515702032,cover=11.5371971
booster[36]:
0:[f520<-0.447120607] yes=1,no=2,missing=1,gain=7.73154449,cover=31.8364677
	1:[f0<85.5] yes=3,no=4,missing=3,gain=0.312040806,cover=13.4644766
		3:leaf=0.0266088601,cover=5.2248888
		4:leaf=0.0661643893,cover=8.23958778
	2:[f523<571.7229] yes=5,no=6,missing=5,gain=1.19654202,cover=18.3719902
		5:leaf=-0.0577496886,cover=13.2812204
		6:leaf=-0.00107135065,cover=5.09077024
booster[37]:
0:[f286<0.00210235524] yes=1,no=2,missing=1,gain=4.75566721,cover=34.5433311
	1:[f44<0.000114964409] yes=3,no=4,missing=3,gain=1.07648158,cover=19.5764484
		3:leaf=-0.00584290316,cover=5.13923836
		4:[f531<-5.53439944e-14] yes=7,no=8,missing=7,gain=1.16985822,cover=14.4372101
			7:leaf=0.00626504142,cover=5.23661709
			8:leaf=0.0657225549,cover=9.20059299
	2:[f2<183] yes=5,no=6,missing=5,gain=0.730862141,cover=14.9668818
		5:leaf=-0.0545326881,cover=9.94960499
		6:leaf=-0.00689124782,cover=5.01727629
booster[38]:
0:[f48<9.80677851e-06] yes=1,no=2,missing=1,gain=4.74396896,cover=33.4516106
	1:[f286<0.00162570295] yes=3,no=4,missing=3,gain=1.48027873,cover=16.2348843
		3:leaf=0.000275030936,cover=6.46326017
		4:leaf=0.0608531795,cover=9.77162457
	2:[f528<3.69371492e-06] yes=5,no=6,missing=5,gain=1.47533941,cover=17.2167263
		5:leaf=-0.0549594946,cover=11.2333679
		6:leaf=0.00487720408,cover=5.98335743
booster[39]:
0:[f533<0.868224442] yes=1,no=2,missing=1,gain=6.98689127,cover=30.6659546
	1:[f11<3.91028243e-06] yes=3,no=4,missing=3,gain=0.696474552,cover=17.9681854
		3:leaf=-0.0144948317,cover=7.35893393
		4:leaf=-0.0564564168,cover=10.609251
	2:[f25<2.43095819e-05] yes=5,no=6,missing=5,gain=0.177362919,cover=12.6977701
		5:leaf=0.0284430273,cover=5.0037303
		6:leaf=0.0635231063,cover=7.69403982
booster[40]:
0:[f286<8.69753858e-05] yes=1,no=2,missing=1,gain=4.28415918,cover=33.5823441
	1:[f62<0.000178923859] yes=3,no=4,missing=3,gain=0.960818768,cover=11.5242491
		3:leaf=0.012023448,cover=5.11794853
		4:leaf=0.0712211877,cover=6.40630054
	2:[f26<0.00150079676] yes=5,no=6,missing=5,gain=2.34171247,cover=22.058094
		5:[f78<5.29268145e-05] yes=7,no=8,missing=7,gain=1.47370696,cover=17.0423603
			7:leaf=0.003037235,cover=5.10574055
			8:leaf=-0.0598388426,cover=11.9366198
		6:leaf=0.0310594141,cover=5.01573277
booster[41]:
0:[f114<0.000676013296] yes=1,no=2,missing=1,gain=4.42032146,cover=32.4246216
	1:[f534<0.951960325] yes=3,no=4,missing=3,gain=3.61407661,cover=23.2341232
		3:[f130<1.2496801e-05] yes=5,no=6,missing=5,gain=1.15824652,cover=16.5394592
			5:leaf=0.00726220151,cover=5.23325396
			6:leaf=0.0649663284,cover=11.3062057
		4:leaf=-0.034659341,cover=6.69466448
	2:leaf=-0.054643508,cover=9.1904974
booster[42]:
0:[f520<-0.447120607] yes=1,no=2,missing=1,gain=6.42864561,cover=29.5152092
	1:[f0<85.5] yes=3,no=4,missing=3,gain=0.300067186,cover=12.6093912
		3:leaf=0.0238201525,cover=5.01386404
		4:leaf=0.0626662597,cover=7.59552717
	2:[f523<550.08905] yes=5,no=6,missing=5,gain=1.03915453,cover=16.905817
		5:leaf=-0.0561243854,cover=11.8826227
		6:leaf=-0.00207560207,cover=5.02319479
booster[43]:
0:[f523<388.279541] yes=1,no=2,missing=1,gain=3.96957183,cover=32.6697006
	1:[f32<0.000181259195] yes=3,no=4,missing=3,gain=2.23505068,cover=20.8265991
		3:[f532<124.776489] yes=7,no=8,missing=7,gain=1.75418067,cover=15.1963615
			7:leaf=0.0366408788,cover=7.72606945
			8:leaf=-0.0272950567,cover=7.47029257
		4:leaf=0.0754584074,cover=5.63023758
	2:[f308<0.000180650328] yes=5,no=6,missing=5,gain=0.192309141,cover=11.8431005
		5:leaf=-0.0215283167,cover=5.03853369
		6:leaf=-0.0542526618,cover=6.80456686
booster[44]:
0:[f114<0.000422203622] yes=1,no=2,missing=1,gain=4.04856205,cover=31.3971748
	1:[f534<0.951960325] yes=3,no=4,missing=3,gain=3.15786529,cover=21.3980885
		3:[f130<1.2496801e-05] yes=5,no=6,missing=5,gain=1.25630212,cover=15.197094
			5:leaf=0.00673335651,cover=5.20216274
			6:leaf=0.0678013265,cover=9.99493122
		4:leaf=-0.0317363106,cover=6.20099449
	2:leaf=-0.0491397157,cover=9.99908638
booster[45]:
0:[f520<-0.447120607] yes=1,no=2,missing=1,gain=5.75470877,cover=28.3161812
	1:[f0<86.5] yes=3,no=4,missing=3,gain=0.248764515,cover=12.1547642
		3:leaf=0.0242567863,cover=5.26316643
		4:leaf=0.0606403835,cover=6.89159775
	2:[f523<538.901001] yes=5,no=6,missing=5,gain=0.928677797,cover=16.161417
		5:leaf=-0.0551603436,cover=11.0436306
		6:leaf=-0.00357105746,cover=5.11778688
booster[46]:
0:[f523<529.064087] yes=1,no=2,missing=1,gain=3.58801246,cover=31.7570648
	1:[f32<0.000183030235] yes=3,no=4,missing=3,gain=2.17285633,cover=22.339138
		3:[f532<124.776489] yes=5,no=6,missing=5,gain=1.5196389,cover=16.8136387
			5:leaf=0.0342380702,cover=7.63085127
			6:leaf=-0.022819899,cover=9.1827879
		4:leaf=0.0717618316,cover=5.52549839
	2:leaf=-0.0478108376,cover=9.41792679
booster[47]:
0:[f48<9.80677851e-06] yes=1,no=2,missing=1,gain=3.75529265,cover=30.4415627
	1:[f43<0.00080897822] yes=3,no=4,missing=3,gain=1.08948922,cover=14.9158211
		3:leaf=0.0532322824,cover=9.85384178
		4:leaf=-0.00247643492,cover=5.06197977
	2:[f528<3.69371492e-06] yes=5,no=6,missing=5,gain=1.26412356,cover=15.5257416
		5:leaf=-0.0529927202,cover=9.74893284
		6:leaf=0.004313407,cover=5.77680779
booster[48]:
0:[f533<0.868224442] yes=1,no=2,missing=1,gain=5.31430483,cover=27.2176208
	1:[f11<3.91028243e-06] yes=3,no=4,missing=3,gain=0.627472878,cover=16.0426807
		3:leaf=-0.0124242548,cover=6.82927036
		4:leaf=-0.0539474376,cover=9.21341038
	2:[f284<8.10691854e-05] yes=5,no=6,missing=5,gain=0.0611453056,cover=11.1749401
		5:leaf=0.0289448109,cover=5.01843691
		6:leaf=0.0581195317,cover=6.15650272
booster[49]:
0:[f523<529.064087] yes=1,no=2,missing=1,gain=3.25879502,cover=30.8915596
	1:[f32<0.000183030235] yes=3,no=4,missing=3,gain=1.93740964,cover=21.919014
		3:[f78<0.000157617964] yes=5,no=6,missing=5,gain=1.44287384,cover=16.5417309
			5:leaf=0.0263452325,cover=10.0366497
			6:leaf=-0.0305098835,cover=6.50508165
		4:leaf=0.0686354935,cover=5.37728357
	2:leaf=-0.0466883294,cover=8.97254467
booster[50]:
0:[f114<0.000676013296] yes=1,no=2,missing=1,gain=3.43773365,cover=29.6150494
	1:[f534<0.951960325] yes=3,no=4,missing=3,gain=2.73434114,cover=21.7753372
		3:[f130<1.2496801e-05] yes=5,no=6,missing=5,gain=0.972025156,cover=15.4986897
			5:leaf=0.00577187538,cover=5.12816238
			6:leaf=0.0594482608,cover=10.3705273
		4:leaf=-0.0310554802,cover=6.27664804
	2:leaf=-0.0521639958,cover=7.83971119
booster[51]:
0:[f520<-0.406625122] yes=1,no=2,missing=1,gain=4.83865643,cover=26.1206074
	1:[f147<0.00403918978] yes=3,no=4,missing=3,gain=0.354202986,cover=12.063159
		3:leaf=0.0174593627,cover=5.09750938
		4:leaf=0.0563361607,cover=6.96565008
	2:[f523<411.173462] yes=5,no=6,missing=5,gain=0.42125392,cover=14.0574484
		5:leaf=-0.0528276749,cover=9.02971363
		6:leaf=-0.0137010785,cover=5.02773523
booster[52]:
0:[f4<133.5] yes=1,no=2,missing=1,gain=2.99487829,cover=30.0036068
	1:leaf=-0.045252867,cover=8.72022057
	2:[f10<0.000498782028] yes=3,no=4,missing=3,gain=1.84927177,cover=21.2833862
		3:[f6<23.1416817] yes=5,no=6,missing=5,gain=0.685150862,cover=11.4996672
			5:leaf=0.0672770366,cover=6.22382307
			6:leaf=0.015847154,cover=5.2758441
		4:leaf=-0.0103388336,cover=9.78371906
booster[53]:
0:[f114<0.000422203622] yes=1,no=2,missing=1,gain=3.16253352,cover=28.6481018
	1:[f534<0.951960325] yes=3,no=4,missing=3,gain=2.37864017,cover=20.0446911
		3:[f130<1.2496801e-05] yes=5,no=6,missing=5,gain=1.09414506,cover=14.2205048
			5:leaf=0.00499919942,cover=5.12569666
			6:leaf=0.0627836883,cover=9.09480762
		4:leaf=-0.0281148348,cover=5.82418633
	2:leaf=-0.0467984341,cover=8.60341072
booster[54]:
0:[f520<-0.447120607] yes=1,no=2,missing=1,gain=4.39228201,cover=25.0807533
	1:[f163<0.000117497169] yes=3,no=4,missing=3,gain=0.217845201,cover=10.8228245
		3:leaf=0.0217210855,cover=5.06317091
		4:leaf=0.0567958057,cover=5.75965357
	2:[f523<459.686768] yes=5,no=6,missing=5,gain=0.720231056,cover=14.2579288
		5:leaf=-0.0529271662,cover=9.20252609
		6:leaf=-0.00555219455,cover=5.05540276
booster[55]:
0:[f523<529.064087] yes=1,no=2,missing=1,gain=2.70536733,cover=29.1853962
	1:[f48<0.000852266676] yes=3,no=4,missing=3,gain=1.75841403,cover=21.0753288
		3:[f534<0.951960325] yes=5,no=6,missing=5,gain=1.93153679,cover=15.0498676
			5:leaf=-0.0309646465,cover=8.06149006
			6:leaf=0.0364862569,cover=6.98837805
		4:leaf=0.0613151006,cover=6.02546072
	2:leaf=-0.0447651632,cover=8.11006737
booster[56]:
0:[f48<9.80677851e-06] yes=1,no=2,missing=1,gain=2.9650054,cover=27.7335129
	1:[f43<0.00056045095] yes=3,no=4,missing=3,gain=0.977729917,cover=13.7500362
		3:leaf=0.0547890253,cover=7.47896433
		4:leaf=0.00232283655,cover=6.27107191
	2:[f528<3.69371492e-06] yes=5,no=6,missing=5,gain=1.1129818,cover=13.9834757
		5:leaf=-0.051298704,cover=8.48291111
		6:leaf=0.00448836386,cover=5.50056458
booster[57]:
0:[f533<0.868224442] yes=1,no=2,missing=1,gain=4.06853628,cover=24.0912476
	1:[f28<0.000476355781] yes=3,no=4,missing=3,gain=0.604527593,cover=14.3236341
		3:leaf=-0.009571,cover=6.21896315
		4:leaf=-0.0519122556,cover=8.10467148
	2:leaf=0.0448616855,cover=9.76761341
booster[58]:
0:[f4<133.5] yes=1,no=2,missing=1,gain=2.51121378,cover=28.3296833
	1:leaf=-0.0435512476,cover=7.89446592
	2:[f10<0.000498782028] yes=3,no=4,missing=3,gain=1.68068063,cover=20.4352169
		3:[f5<13.2196407] yes=5,no=6,missing=5,gain=0.614328384,cover=11.0720768
			5:leaf=0.0641398653,cover=5.96273375
			6:leaf=0.0146654546,cover=5.10934353
		4:leaf=-0.0110841133,cover=9.36314106
booster[59]:
0:[f114<0.000676013296] yes=1,no=2,missing=1,gain=2.69254017,cover=26.9587345
	1:[f534<0.951960325] yes=3,no=4,missing=3,gain=2.04547119,cover=20.2930794
		3:[f130<1.2496801e-05] yes=5,no=6,missing=5,gain=0.867644072,cover=14.4464388
			5:leaf=0.0037865513,cover=5.03960228
			6:leaf=0.0551386774,cover=9.40683556
		4:leaf=-0.0275945272,cover=5.84664154
	2:leaf=-0.0499668978,cover=6.66565561
booster[60]:
0:[f520<-0.447120607] yes=1,no=2,missing=1,gain=3.72632837,cover=23.1466312
	1:leaf=0.0413913876,cover=9.96920013
	2:[f523<388.279541] yes=3,no=4,missing=3,gain=0.557007313,cover=13.1774311
		3:leaf=-0.0514386557,cover=7.9767251
		4:leaf=-0.00838887598,cover=5.20070601
booster[61]:
0:[f523<529.064087] yes=1,no=2,missing=1,gain=2.29096723,cover=27.5645828
	1:[f48<0.000852266676] yes=3,no=4,missing=3,gain=1.55484939,cover=20.1760998
		3:[f534<0.951960325] yes=5,no=6,missing=5,gain=1.60678661,cover=14.4378481
			5:leaf=-0.0293224286,cover=7.69649601
			6:leaf=0.0333132073,cover=6.74135208
		4:leaf=0.0583758131,cover=5.73825264
	2:leaf=-0.0430395156,cover=7.38848257
booster[62]:
0:[f48<9.80677851e-06] yes=1,no=2,missing=1,gain=2.5284121,cover=26.0881882
	1:[f43<0.00056045095] yes=3,no=4,missing=3,gain=0.934280634,cover=13.0496397
		3:leaf=0.0529926978,cover=7.09186459
		4:leaf=0.000694459362,cover=5.95777559
	2:[f528<3.69371492e-06] yes=5,no=6,missing=5,gain=1.0178231,cover=13.0385485
		5:leaf=-0.050229352,cover=7.70921421
		6:leaf=0.00447947998,cover=5.32933426
booster[63]:
0:[f147<0.00323564024] yes=1,no=2,missing=1,gain=3.4535768,cover=22.2622261
	1:[f520<-0.311034083] yes=3,no=4,missing=3,gain=0.871150613,cover=15.393899
		3:leaf=0.00498364447,cover=5.04105473
		4:leaf=-0.0440675244,cover=10.3528442
	2:leaf=0.0519241057,cover=6.86832762
booster[64]:
0:[f4<133.5] yes=1,no=2,missing=1,gain=2.14358974,cover=26.7620068
	1:leaf=-0.0419951752,cover=7.19569921
	2:[f10<0.000498782028] yes=3,no=4,missing=3,gain=1.52736664,cover=19.5663071
		3:[f532<222.140717] yes=5,no=6,missing=5,gain=0.46989131,cover=10.6568232
			5:leaf=0.0604480878,cover=5.62810326
			6:leaf=0.015576439,cover=5.02872038
		4:leaf=-0.0115402211,cover=8.90948296
booster[65]:
0:[f114<0.000422203622] yes=1,no=2,missing=1,gain=2.33047128,cover=25.3620415
	1:[f96<0.000637710909] yes=3,no=4,missing=3,gain=1.87225151,cover=18.3156223
		3:[f0<37.5] yes=5,no=6,missing=5,gain=1.54742396,cover=11.4748411
			5:leaf=0.0310836416,cover=5.30295563
			6:leaf=-0.0368947946,cover=6.17188597
		4:leaf=0.0574690998,cover=6.84078121
	2:leaf=-0.0442820005,cover=7.04641867
booster[66]:
0:[f533<0.868224442] yes=1,no=2,missing=1,gain=3.15278864,cover=21.3215561
	1:[f28<0.000476355781] yes=3,no=4,missing=3,gain=0.577416778,cover=12.8487425
		3:leaf=-0.0073341527,cover=5.73489523
		4:leaf=-0.0502938591,cover=7.11384726
	2:leaf=0.041840557,cover=8.47281456
booster[67]:
0:[f523<529.064087] yes=1,no=2,missing=1,gain=1.96725893,cover=26.0050755
	1:[f48<0.000852266676] yes=3,no=4,missing=3,gain=1.38281775,cover=19.2531776
		3:[f534<0.951960325] yes=5,no=6,missing=5,gain=1.37397075,cover=13.8124638
			5:leaf=-0.0280991141,cover=7.32914209
			6:leaf=0.0309402402,cover=6.48332214
		4:leaf=0.0559268706,cover=5.44071341
	2:leaf=-0.0415786505,cover=6.75189829
booster[68]:
0:[f48<0.000852266676] yes=1,no=2,missing=1,gain=2.2140696,cover=24.5177078
	1:[f533<0.824792981] yes=3,no=4,missing=3,gain=1.86969233,cover=18.9360046
		3:[f538<0.00347028766] yes=5,no=6,missing=5,gain=0.926173329,cover=13.8652668
			5:leaf=0.00188855641,cover=5.2609396
			6:leaf=0.0544591136,cover=8.6043272
		4:leaf=-0.0303953942,cover=5.07073879
	2:leaf=-0.0493202023,cover=5.58170319
booster[69]:
0:[f520<-0.447120607] yes=1,no=2,missing=1,gain=2.91243434,cover=20.4652748
	1:leaf=0.0382152051,cover=8.82431698
	2:[f273<4.0589689e-06] yes=3,no=4,missing=3,gain=0.38830936,cover=11.6409578
		3:leaf=-0.0103287678,cover=5.00912952
		4:leaf=-0.0488095023,cover=6.63182831
booster[70]:
0:[f43<0.00125646952] yes=1,no=2,missing=1,gain=1.92903864,cover=25.1556416
	1:[f523<194.923889] yes=3,no=4,missing=3,gain=1.88700628,cover=19.8510361
		3:[f49<3.83350334e-06] yes=5,no=6,missing=5,gain=0.92702502,cover=11.92698
			5:leaf=-0.0127516156,cover=6.60365963
			6:leaf=0.0394266099,cover=5.32332039
		4:leaf=-0.0482687056,cover=7.9240551
	2:leaf=0.0497767404,cover=5.30460644
booster[71]:
0:[f48<0.000852266676] yes=1,no=2,missing=1,gain=1.99876428,cover=23.6995583
	1:[f29<0.00116505823] yes=3,no=4,missing=3,gain=1.29602695,cover=18.4581966
		3:[f292<0.000126936968] yes=5,no=6,missing=5,gain=1.73900402,cover=13.4209061
			5:leaf=0.0363691524,cover=5.98919439
			6:leaf=-0.0310894549,cover=7.43171167
		4:leaf=0.0551973358,cover=5.03728962
	2:leaf=-0.0483195744,cover=5.24136305
booster[72]:
0:[f147<0.00323564024] yes=1,no=2,missing=1,gain=2.69843102,cover=19.7207851
	1:[f274<3.98552447e-06] yes=3,no=4,missing=3,gain=0.741702557,cover=13.8169594
		3:leaf=-0.00336391269,cover=7.23907948
		4:leaf=-0.0486262925,cover=6.57787943
	2:leaf=0.048966229,cover=5.90382671
booster[73]:
0:[f43<0.00125646952] yes=1,no=2,missing=1,gain=1.73035932,cover=24.3774872
	1:[f523<194.923889] yes=3,no=4,missing=3,gain=1.738325,cover=19.2235737
		3:[f49<3.83350334e-06] yes=5,no=6,missing=5,gain=0.830218077,cover=11.7123823
			5:leaf=-0.0119513273,cover=6.54956055
			6:leaf=0.037862923,cover=5.16282177
		4:leaf=-0.0474003553,cover=7.51119184
	2:leaf=0.0476900637,cover=5.15391302
booster[74]:
0:[f114<0.000422203622] yes=1,no=2,missing=1,gain=1.89650357,cover=22.9552078
	1:[f96<0.000637710909] yes=3,no=4,missing=3,gain=1.48401427,cover=16.8225689
		3:[f0<37.5] yes=5,no=6,missing=5,gain=1.32019222,cover=10.8107758
			5:leaf=0.0296564046,cover=5.09511185
			6:leaf=-0.0346664488,cover=5.71566391
		4:leaf=0.0542968698,cover=6.01179361
	2:leaf=-0.0425769798,cover=6.1326375
booster[75]:
0:[f520<-0.87203455] yes=1,no=2,missing=1,gain=2.48381925,cover=18.8659439
	1:leaf=0.0487292297,cover=5.44636726
	2:[f80<0.00285767368] yes=3,no=4,missing=3,gain=1.51834965,cover=13.4195766
		3:leaf=-0.0500547551,cover=8.35501957
		4:leaf=0.0155034531,cover=5.06455708
booster[76]:
0:[f4<133.5] yes=1,no=2,missing=1,gain=1.58521986,cover=23.6373901
	1:leaf=-0.0393205509,cover=5.98386955
	2:[f10<0.000498782028] yes=3,no=4,missing=3,gain=1.25393939,cover=17.6535206
		3:leaf=0.0389540158,cover=9.73551178
		4:leaf=-0.0123040015,cover=7.91800928
booster[77]:
0:[f48<9.80677851e-06] yes=1,no=2,missing=1,gain=1.73605216,cover=22.1644783
	1:[f43<0.00056045095] yes=3,no=4,missing=3,gain=0.782246947,cover=11.3208218
		3:leaf=0.0484688245,cover=6.24421167
		4:leaf=-0.00229294528,cover=5.07661057
	2:[f528<1.14658701e-06] yes=5,no=6,missing=5,gain=0.705420554,cover=10.8436556
		5:leaf=-0.0474008024,cover=5.76552534
		6:leaf=0.00160688907,cover=5.07813025
booster[78]:
0:[f147<0.00323564024] yes=1,no=2,missing=1,gain=2.27532387,cover=18.1097279
	1:[f274<3.98552447e-06] yes=3,no=4,missing=3,gain=0.662303865,cover=12.8338985
		3:leaf=-0.00320854643,cover=6.91274595
		4:leaf=-0.0474725254,cover=5.92115259
	2:leaf=0.0470251441,cover=5.27582932
booster[79]:
0:[f523<529.064087] yes=1,no=2,missing=1,gain=1.44981265,cover=23.0839138
	1:[f521<3.67744684] yes=3,no=4,missing=3,gain=1.12986374,cover=17.4639759
		3:leaf=0.0368136838,cover=9.76125526
		4:leaf=-0.0121456375,cover=7.7027216
	2:leaf=-0.0388183892,cover=5.61993694
booster[80]:
0:[f114<0.000422203622] yes=1,no=2,missing=1,gain=1.61961663,cover=21.5718975
	1:[f96<0.000637710909] yes=3,no=4,missing=3,gain=1.33399892,cover=16.0195866
		3:[f0<37.5] yes=5,no=6,missing=5,gain=1.13499045,cover=10.4835262
			5:leaf=0.0272097047,cover=5.02825642
			6:leaf=-0.033177793,cover=5.45526934
		4:leaf=0.052824486,cover=5.53606129
	2:leaf=-0.0411723964,cover=5.55230951
booster[81]:
0:[f520<-0.447120607] yes=1,no=2,missing=1,gain=2.09317327,cover=17.3831673
	1:leaf=0.0340018161,cover=7.53997946
	2:leaf=-0.0322059318,cover=9.84318829
booster[82]:
0:[f4<133.5] yes=1,no=2,missing=1,gain=1.35562301,cover=22.4961605
	1:leaf=-0.0378652923,cover=5.49306393
	2:[f10<0.000498782028] yes=3,no=4,missing=3,gain=1.10440719,cover=17.0030975
		3:leaf=0.0368189439,cover=9.38097286
		4:leaf=-0.0120963855,cover=7.6221242
booster[83]:
0:[f114<0.000422203622] yes=1,no=2,missing=1,gain=1.48173273,cover=20.893074
	1:[f96<0.000637710909] yes=3,no=4,missing=3,gain=1.2424159,cover=15.6168032
		3:[f0<37.5] yes=5,no=6,missing=5,gain=1.06072593,cover=10.3412638
			5:leaf=0.0263469052,cover=5.00711489
			6:leaf=-0.0323509611,cover=5.33414936
		4:leaf=0.0519333892,cover=5.27553892
	2:leaf=-0.0402278751,cover=5.27627134
booster[84]:
0:[f533<0.825528502] yes=1,no=2,missing=1,gain=1.97353661,cover=16.7758121
	1:leaf=-0.0353458636,cover=8.4235878
	2:leaf=0.029512167,cover=8.35222435
booster[85]:
0:[f523<529.064087] yes=1,no=2,missing=1,gain=1.27131093,cover=21.960434
	1:[f521<3.67744684] yes=3,no=4,missing=3,gain=1.01914334,cover=16.7912121
		3:leaf=0.0353050642,cover=9.33825493
		4:leaf=-0.0119832894,cover=7.45295811
	2:leaf=-0.0378627293,cover=5.16922188
booster[86]:
0:[f48<9.80677851e-06] yes=1,no=2,missing=1,gain=1.40122604,cover=20.2571201
	1:[f43<0.000499717891] yes=3,no=4,missing=3,gain=0.57004112,cover=10.3865528
		3:leaf=0.0457054563,cover=5.33615732
		4:leaf=0.000556394865,cover=5.05039597
	2:leaf=-0.0244695451,cover=9.87056637
booster[87]:
0:[f537<0.0566513017] yes=1,no=2,missing=1,gain=1.84852982,cover=16.2835312
	1:[f4<137.5] yes=3,no=4,missing=3,gain=0.75836426,cover=10.9582071
		3:leaf=0.00275776093,cover=5.03605032
		4:leaf=-0.0477295145,cover=5.92215729
	2:leaf=0.0406266116,cover=5.32532406
booster[88]:
0:[f4<133.5] yes=1,no=2,missing=1,gain=1.18840039,cover=21.5566673
	1:leaf=-0.0367508568,cover=5.10514688
	2:[f534<0.951960325] yes=3,no=4,missing=3,gain=1.04413617,cover=16.4515209
		3:[f292<0.00546420692] yes=5,no=6,missing=5,gain=0.608551443,cover=10.4933224
			5:leaf=-0.0273240097,cover=5.06569099
			6:leaf=0.0169172939,cover=5.42763138
		4:leaf=0.0445886031,cover=5.95819902
booster[89]:
0:[f48<9.80677851e-06] yes=1,no=2,missing=1,gain=1.24722743,cover=19.8534222
	1:[f43<0.00048133824] yes=3,no=4,missing=3,gain=0.503900647,cover=10.2260685
		3:leaf=0.0438975245,cover=5.11394548
		4:leaf=0.0011278101,cover=5.11212301
	2:leaf=-0.0232793447,cover=9.62735271
booster[90]:
0:[f520<-0.447120607] yes=1,no=2,missing=1,gain=1.72679818,cover=15.7533188
	1:leaf=0.0320759229,cover=6.81625938
	2:leaf=-0.0307675451,cover=8.9370594
booster[91]:
0:[f44<0.00269813882] yes=1,no=2,missing=1,gain=1.05245006,cover=21.010355
	1:[f537<0.017474819] yes=3,no=4,missing=3,gain=1.13383985,cover=14.290307
		3:leaf=0.0140964556,cover=6.92196178
		4:leaf=-0.0391208269,cover=7.36834574
	2:leaf=0.031189749,cover=6.72004795
booster[92]:
0:[f48<9.80677851e-06] yes=1,no=2,missing=1,gain=1.13089383,cover=19.4500008
	1:[f43<0.00048133824] yes=3,no=4,missing=3,gain=0.477360189,cover=10.0911465
		3:leaf=0.0426172093,cover=5.02396917
		4:leaf=0.000807198638,cover=5.0671773
	2:leaf=-0.0223652404,cover=9.35885429
booster[93]:
0:[f537<0.0377668887] yes=1,no=2,missing=1,gain=1.65378189,cover=15.2952671
	1:leaf=-0.0278520826,cover=9.57326221
	2:leaf=0.0356065147,cover=5.72200489
booster[94]:
0:[f523<388.279541] yes=1,no=2,missing=1,gain=0.961679399,cover=20.6198273
	1:[f307<0.000239981557] yes=3,no=4,missing=3,gain=1.0813632,cover=14.8412399
		3:leaf=-0.0111892354,cover=7.6624651
		4:leaf=0.0399735197,cover=7.17877531
	2:leaf=-0.0304916352,cover=5.77858782
booster[95]:
0:[f533<0.821781218] yes=1,no=2,missing=1,gain=1.0570066,cover=19.1137352
	1:[f78<0.00027414714] yes=3,no=4,missing=3,gain=1.00838387,cover=13.7243128
		3:leaf=-0.012610211,cover=6.21829176
		4:leaf=0.0388270132,cover=7.5060215
	2:leaf=-0.0324625336,cover=5.38942242
booster[96]:
0:[f520<-0.447120607] yes=1,no=2,missing=1,gain=1.52302861,cover=14.8291197
	1:leaf=0.0307546612,cover=6.41549301
	2:leaf=-0.0298612695,cover=8.41362667
booster[97]:
0:[f44<0.00269813882] yes=1,no=2,missing=1,gain=0.94683373,cover=20.2191658
	1:[f537<0.017474819] yes=3,no=4,missing=3,gain=1.00948286,cover=13.7482901
		3:leaf=0.0129984766,cover=6.78923941
		4:leaf=-0.0380788371,cover=6.95905066
	2:leaf=0.0300141927,cover=6.47087622
booster[98]:
0:[f48<9.80677851e-06] yes=1,no=2,missing=1,gain=1.005059,cover=18.6785622
	1:leaf=0.0227056798,cover=9.73314381
	2:leaf=-0.0214240011,cover=8.94541836
booster[99]:
0:[f533<0.825528502] yes=1,no=2,missing=1,gain=1.42213893,cover=14.4112806
	1:leaf=-0.0322363339,cover=7.3164506
	2:leaf=0.0266662072,cover=7.09482956
booster[100]:
0:[f44<0.00269813882] yes=1,no=2,missing=1,gain=0.874847651,cover=19.8702145
	1:[f537<0.017474819] yes=3,no=4,missing=3,gain=0.942392826,cover=13.483448
		3:leaf=0.012461124,cover=6.72831583
		4:leaf=-0.0373136699,cover=6.7551322
	2:leaf=0.0289611947,cover=6.38676739
booster[101]:
0:[f533<0.821781218] yes=1,no=2,missing=1,gain=0.932682931,cover=18.3785763
	1:[f78<0.00027414714] yes=3,no=4,missing=3,gain=0.909482718,cover=13.2798195
		3:leaf=-0.0120191667,cover=6.09518337
		4:leaf=0.0375014059,cover=7.18463612
	2:leaf=-0.0312005039,cover=5.09875774
booster[102]:
0:[f520<-0.447120607] yes=1,no=2,missing=1,gain=1.33737838,cover=13.9724693
	1:leaf=0.0293044634,cover=6.04612589
	2:leaf=-0.0289980471,cover=7.92634392
booster[103]:
0:[f44<0.00269813882] yes=1,no=2,missing=1,gain=0.822551847,cover=19.5001011
	1:[f527<1.85139143e-05] yes=3,no=4,missing=3,gain=0.860631049,cover=13.2018738
		3:leaf=-0.031734895,cover=8.12659264
		4:leaf=0.0172843933,cover=5.07528162
	2:leaf=0.0283094738,cover=6.29822826
booster[104]:
0:[f48<9.80677851e-06] yes=1,no=2,missing=1,gain=0.906134963,cover=17.9526577
	1:leaf=0.0219968613,cover=9.37684441
	2:leaf=-0.0206645112,cover=8.57581234
booster[105]:
0:[f537<0.0377668887] yes=1,no=2,missing=1,gain=1.2794832,cover=13.6138391
	1:leaf=-0.0260330178,cover=8.57742214
	2:leaf=0.0327775292,cover=5.03641701
booster[106]:
0:[f286<0.000201606264] yes=1,no=2,missing=1,gain=0.788925409,cover=19.2031517
	1:leaf=0.0223133545,cover=8.54040051
	2:[f525<0.010755267] yes=3,no=4,missing=3,gain=0.597009063,cover=10.6627512
		3:leaf=0.0061154482,cover=5.58914089
		4:leaf=-0.0382465497,cover=5.07361031
booster[107]:
0:[f48<9.80677851e-06] yes=1,no=2,missing=1,gain=0.821888506,cover=17.6931934
	1:leaf=0.0211567022,cover=9.25415421
	2:leaf=-0.019742785,cover=8.43903923
booster[108]:
0:[f520<-0.447120607] yes=1,no=2,missing=1,gain=1.19718122,cover=13.3245211
	1:leaf=0.0282644331,cover=5.79260492
	2:leaf=-0.0280234907,cover=7.53191566
booster[109]:
0:[f45<0.000569123775] yes=1,no=2,missing=1,gain=0.794943988,cover=18.9400368
	1:leaf=-0.0257515367,cover=6.29675341
	2:[f130<7.27907536e-05] yes=3,no=4,missing=3,gain=0.888868451,cover=12.6432829
		3:leaf=0.0401493572,cover=6.00309992
		4:leaf=-0.00976183917,cover=6.64018297
booster[110]:
0:[f48<9.80677851e-06] yes=1,no=2,missing=1,gain=0.758491993,cover=17.4162178
	1:leaf=0.0203514826,cover=9.14989853
	2:leaf=-0.019225074,cover=8.26632023
booster[111]:
0:[f533<0.825528502] yes=1,no=2,missing=1,gain=1.13635182,cover=13.0126896
	1:leaf=-0.0301182009,cover=6.63292885
	2:leaf=0.0249384511,cover=6.37976074
booster[112]:
0:[f534<0.951960325] yes=1,no=2,missing=1,gain=0.737665057,cover=18.6676292
	1:[f27<0.00189568498] yes=3,no=4,missing=3,gain=0.707448602,cover=12.5443926
		3:leaf=-0.0310550872,cover=7.39423561
		4:leaf=0.014071852,cover=5.15015697
	2:leaf=0.0268968381,cover=6.1232357
booster[113]:
0:[f78<0.00028310268] yes=1,no=2,missing=1,gain=0.737243533,cover=17.1742115
	1:leaf=-0.0175850764,cover=8.85752296
	2:leaf=0.0216539018,cover=8.31668854
booster[114]:
0:[f114<0.00114780548] yes=1,no=2,missing=1,gain=1.07871723,cover=12.7256145
	1:leaf=-0.026713362,cover=7.3367672
	2:leaf=0.0279222634,cover=5.38884735
booster[115]:
0:[f45<0.000569123775] yes=1,no=2,missing=1,gain=0.758716822,cover=18.3668327
	1:leaf=-0.025502244,cover=6.11784077
	2:[f130<7.27907536e-05] yes=3,no=4,missing=3,gain=0.78969276,cover=12.248991
		3:leaf=0.0389033407,cover=5.79644537
		4:leaf=-0.00884852372,cover=6.45254612
booster[116]:
0:[f2<154.5] yes=1,no=2,missing=1,gain=0.728981018,cover=16.8909225
	1:[f522<31.3649139] yes=3,no=4,missing=3,gain=0.515606165,cover=10.9525633
		3:leaf=-0.00608161138,cover=5.22615862
		4:leaf=0.0348035991,cover=5.72640467
	2:leaf=-0.024337953,cover=5.93835926
booster[117]:
0:[f520<-0.447120607] yes=1,no=2,missing=1,gain=1.03720737,cover=12.4103317
	1:leaf=0.0269178599,cover=5.40412855
	2:leaf=-0.0271005426,cover=7.00620365
booster[118]:
0:[f45<0.000569123775] yes=1,no=2,missing=1,gain=0.715110004,cover=18.1117744
	1:leaf=-0.0246953871,cover=6.06997061
	2:[f95<0.000143755373] yes=3,no=4,missing=3,gain=0.752115786,cover=12.0418034
		3:leaf=0.0372538865,cover=6.00532722
		4:leaf=-0.00965537596,cover=6.03647566
booster[119]:
0:[f48<9.80677851e-06] yes=1,no=2,missing=1,gain=0.706112802,cover=16.6178856
	1:leaf=0.0200730171,cover=8.70361137
	2:leaf=-0.0189172868,cover=7.91427469
booster[120]:
0:[f537<0.0339677632] yes=1,no=2,missing=1,gain=0.986572444,cover=12.1364069
	1:leaf=-0.0259473082,cover=7.03662109
	2:leaf=0.0274159107,cover=5.09978628
booster[121]:
0:[f45<0.000569123775] yes=1,no=2,missing=1,gain=0.663640082,cover=17.854805
	1:leaf=-0.0239294227,cover=5.99537992
	2:[f308<9.86006708e-05] yes=3,no=4,missing=3,gain=0.720826387,cover=11.8594255
		3:leaf=0.0365415663,cover=5.8920517
		4:leaf=-0.00967056584,cover=5.96737385
booster[122]:
0:[f11<0.00168820098] yes=1,no=2,missing=1,gain=0.694026768,cover=16.383791
	1:[f308<8.43919497e-06] yes=3,no=4,missing=3,gain=0.618501663,cover=11.3809986
		3:leaf=0.0110888714,cover=5.49302149
		4:leaf=-0.0324059613,cover=5.88797712
	2:leaf=0.0292257704,cover=5.0027914
booster[123]:
0:[f520<-0.447120607] yes=1,no=2,missing=1,gain=0.947964609,cover=11.8811874
	1:leaf=0.0262243282,cover=5.17813587
	2:leaf=-0.0263855048,cover=6.70305204
booster[124]:
0:[f45<0.000569123775] yes=1,no=2,missing=1,gain=0.61458385,cover=17.6524906
	1:leaf=-0.0230841637,cover=5.92462301
	2:[f95<0.000143755373] yes=3,no=4,missing=3,gain=0.685565174,cover=11.7278681
		3:leaf=0.035821341,cover=5.78540134
		4:leaf=-0.00945924874,cover=5.94246721
booster[125]:
0:[f2<154.5] yes=1,no=2,missing=1,gain=0.668456078,cover=16.184164
	1:[f291<0.00306007778] yes=3,no=4,missing=3,gain=0.398703158,cover=10.5078716
		3:leaf=0.032408081,cover=5.460217
		4:leaf=-0.004347587,cover=5.04765415
	2:leaf=-0.0238727629,cover=5.67629194
booster[126]:
0:[f533<0.825528502] yes=1,no=2,missing=1,gain=0.912803233,cover=11.6175346
	1:leaf=-0.0281674601,cover=5.97345448
	2:leaf=0.0236540157,cover=5.64407969
booster[127]:
0:[f534<0.951960325] yes=1,no=2,missing=1,gain=0.620605946,cover=17.4110394
	1:[f45<0.00272791507] yes=3,no=4,missing=3,gain=0.58607614,cover=11.6631651
		3:leaf=-0.0322189294,cover=5.83532667
		4:leaf=0.00968529657,cover=5.82783842
	2:leaf=0.0253807697,cover=5.74787474
booster[128]:
0:[f2<154.5] yes=1,no=2,missing=1,gain=0.623033345,cover=15.9455557
	1:[f95<0.000441489043] yes=3,no=4,missing=3,gain=0.278229415,cover=10.3594494
		3:leaf=-0.00101057591,cover=5.33968925
		4:leaf=0.0301638599,cover=5.01976061
	2:leaf=-0.0232422762,cover=5.58610582
booster[129]:
0:[f533<0.825528502] yes=1,no=2,missing=1,gain=0.828910768,cover=11.3513041
	1:leaf=-0.0273097195,cover=5.82500696
	2:leaf=0.0225642398,cover=5.52629662
booster[130]:
0:[f45<0.000569123775] yes=1,no=2,missing=1,gain=0.586919904,cover=17.1578732
	1:leaf=-0.0227402821,cover=5.77730513
	2:[f130<7.27907536e-05] yes=3,no=4,missing=3,gain=0.650010049,cover=11.3805685
		3:leaf=0.0364798866,cover=5.31040955
		4:leaf=-0.00827289186,cover=6.07015944
booster[131]:
0:[f48<9.80677851e-06] yes=1,no=2,missing=1,gain=0.590582967,cover=15.6732273
	1:leaf=0.0187364146,cover=8.21395016
	2:leaf=-0.0178623721,cover=7.45927715
booster[132]:
0:[f520<-0.406625122] yes=1,no=2,missing=1,gain=0.795186102,cover=11.1229458
	1:leaf=0.0225929208,cover=5.33018351
	2:leaf=-0.0266984496,cover=5.79276228
booster[133]:
0:[f534<0.951960325] yes=1,no=2,missing=1,gain=0.555314779,cover=16.9570923
	1:[f45<0.00272791507] yes=3,no=4,missing=3,gain=0.540916681,cover=11.3266506
		3:leaf=-0.0313148871,cover=5.60340786
		4:leaf=0.00944314059,cover=5.72324228
	2:leaf=0.0242670402,cover=5.63044262
booster[134]:
0:[f2<154.5] yes=1,no=2,missing=1,gain=0.58113116,cover=15.471323
	1:[f311<4.42690725e-05] yes=3,no=4,missing=3,gain=0.190427184,cover=10.0494566
		3:leaf=0.000557247724,cover=5.00667429
		4:leaf=0.0270430502,cover=5.04278183
	2:leaf=-0.0227392297,cover=5.42186642
booster[135]:
0:[f533<0.825528502] yes=1,no=2,missing=1,gain=0.732833028,cover=10.88797
	1:leaf=-0.0263411161,cover=5.58653307
	2:leaf=0.021393761,cover=5.3014369
booster[136]:
0:[f45<0.000569123775] yes=1,no=2,missing=1,gain=0.560113907,cover=16.7276974
	1:leaf=-0.0224415641,cover=5.62301254
	2:[f308<9.86006708e-05] yes=3,no=4,missing=3,gain=0.613707781,cover=11.1046848
		3:leaf=0.0348730795,cover=5.48053932
		4:leaf=-0.00902062189,cover=5.62414503
booster[137]:
0:[f48<9.80677851e-06] yes=1,no=2,missing=1,gain=0.548188865,cover=15.2598209
	1:leaf=0.0182766356,cover=8.01000881
	2:leaf=-0.0174063593,cover=7.24981213
booster[138]:
0:[f520<-0.406625122] yes=1,no=2,missing=1,gain=0.714622378,cover=10.6781693
	1:leaf=0.0215612333,cover=5.14384127
	2:leaf=-0.0259756744,cover=5.53432798
booster[139]:
0:[f83<3.91028243e-06] yes=1,no=2,missing=1,gain=0.544811368,cover=16.5654755
	1:[f286<0.000201606264] yes=3,no=4,missing=3,gain=0.567393661,cover=10.989707
		3:leaf=0.0110039348,cover=5.27879238
		4:leaf=-0.0312858149,cover=5.71091509
	2:leaf=0.0240720082,cover=5.57576752
booster[140]:
0:[f78<0.00028310268] yes=1,no=2,missing=1,gain=0.540629625,cover=15.0941706
	1:leaf=-0.0159083661,cover=7.89874601
	2:leaf=0.0196941961,cover=7.19542456
booster[141]:
0:[f533<0.825528502] yes=1,no=2,missing=1,gain=0.660830677,cover=10.4674759
	1:leaf=-0.0253967978,cover=5.33878231
	2:leaf=0.0206836294,cover=5.1286931
booster[142]:
0:[f44<0.00269813882] yes=1,no=2,missing=1,gain=0.539927244,cover=16.3094902
	1:[f537<0.017474819] yes=3,no=4,missing=3,gain=0.608226717,cover=10.988903
		3:leaf=0.00984831993,cover=5.89077806
		4:leaf=-0.033952605,cover=5.09812498
	2:leaf=0.0245122965,cover=5.32058668
booster[143]:
0:[f2<154.5] yes=1,no=2,missing=1,gain=0.515681267,cover=14.8730097
	1:leaf=0.0144014647,cover=9.68444443
	2:leaf=-0.0218787324,cover=5.18856525
booster[144]:
0:[f520<-0.386272728] yes=1,no=2,missing=1,gain=0.613208234,cover=10.2520599
	1:leaf=0.0199367758,cover=5.00944948
	2:leaf=-0.0248477552,cover=5.24260998
booster[145]:
0:[f45<0.000569123775] yes=1,no=2,missing=1,gain=0.548704982,cover=16.1274014
	1:leaf=-0.022494588,cover=5.43792963
	2:[f308<9.86006708e-05] yes=3,no=4,missing=3,gain=0.577693999,cover=10.6894722
		3:leaf=0.0346183889,cover=5.29050827
		4:leaf=-0.00870560016,cover=5.39896345
booster[146]:
0:[f48<9.80677851e-06] yes=1,no=2,missing=1,gain=0.484488875,cover=14.7017441
	1:leaf=0.0173451882,cover=7.73707914
	2:leaf=-0.0167593118,cover=6.96466541
booster[147]:
0:[f520<-0.336099684] yes=1,no=2,missing=1,gain=0.529658437,cover=10.0671072
	1:leaf=0.0181551185,cover=5.03050852
	2:leaf=-0.023780439,cover=5.03659868
booster[148]:
0:[f45<0.000569123775] yes=1,no=2,missing=1,gain=0.510049462,cover=15.9646244
	1:leaf=-0.0218087938,cover=5.37984133
	2:[f308<9.86006708e-05] yes=3,no=4,missing=3,gain=0.550099969,cover=10.5847836
		3:leaf=0.0337894224,cover=5.22424126
		4:leaf=-0.00865161698,cover=5.36054182
booster[149]:
0:[f78<0.00028310268] yes=1,no=2,missing=1,gain=0.475812495,cover=14.560648
	1:leaf=-0.0151232705,cover=7.65332556
	2:leaf=0.0188163668,cover=6.90732193
booster[150]:
0:leaf=-0.00298874779,cover=9.91276455
booster[151]:
0:[f83<3.91028243e-06] yes=1,no=2,missing=1,gain=0.506897807,cover=15.7878799
	1:[f522<28.5367279] yes=3,no=4,missing=3,gain=0.486916721,cover=10.4428501
		3:leaf=0.00985990372,cover=5.02967739
		4:leaf=-0.0302353892,cover=5.41317272
	2:leaf=0.0234927516,cover=5.34502983
booster[152]:
0:[f48<9.80677851e-06] yes=1,no=2,missing=1,gain=0.477808088,cover=14.4179592
	1:leaf=0.0174547192,cover=7.55459213
	2:leaf=-0.0166992061,cover=6.86336756
booster[153]:
0:leaf=-0.00269407663,cover=9.83972454
booster[154]:
0:[f45<0.000569123775] yes=1,no=2,missing=1,gain=0.481510192,cover=15.6598988
	1:leaf=-0.0213830154,cover=5.30479383
	2:[f308<9.86006708e-05] yes=3,no=4,missing=3,gain=0.53290236,cover=10.3551054
		3:leaf=0.0333951414,cover=5.09075737
		4:leaf=-0.00875422359,cover=5.26434803
booster[155]:
0:[f78<0.00028310268] yes=1,no=2,missing=1,gain=0.439079583,cover=14.2826443
	1:leaf=-0.0147187663,cover=7.52425718
	2:leaf=0.0181639399,cover=6.75838709
booster[156]:
0:leaf=-0.00258978247,cover=9.78091526
booster[157]:
0:[f83<3.91028243e-06] yes=1,no=2,missing=1,gain=0.465347588,cover=15.5290661
	1:[f522<28.6001129] yes=3,no=4,missing=3,gain=0.424920261,cover=10.2569675
		3:leaf=0.00875810534,cover=5.00353765
		4:leaf=-0.0290117692,cover=5.25342989
	2:leaf=0.0225463156,cover=5.27209902
booster[158]:
0:[f48<9.80677851e-06] yes=1,no=2,missing=1,gain=0.44471696,cover=14.177166
	1:leaf=0.0168687161,cover=7.4180603
	2:leaf=-0.0163228773,cover=6.75910616
booster[159]:
0:leaf=-0.00232385565,cover=9.71300697
booster[160]:
0:[f45<0.000569123775] yes=1,no=2,missing=1,gain=0.454800844,cover=15.4109802
	1:leaf=-0.0209197067,cover=5.25036097
	2:[f292<0.00438070577] yes=3,no=4,missing=3,gain=0.331449628,cover=10.1606188
		3:leaf=0.0287167132,cover=5.03905344
		4:leaf=-0.00504053105,cover=5.12156582
booster[161]:
0:[f78<0.00028310268] yes=1,no=2,missing=1,gain=0.40862748,cover=14.051796
	1:leaf=-0.0143912928,cover=7.41203642
	2:leaf=0.0175588541,cover=6.63975954
booster[162]:
0:leaf=-0.00221263873,cover=9.67754078
booster[163]:
0:[f275<4.56014895e-05] yes=1,no=2,missing=1,gain=0.440560102,cover=15.3087902
	1:leaf=-0.0126748383,cover=9.21525955
	2:leaf=0.0197666027,cover=6.09353065
booster[164]:
0:[f48<9.80677851e-06] yes=1,no=2,missing=1,gain=0.411817789,cover=13.9552631
	1:leaf=0.0162494127,cover=7.29419041
	2:leaf=-0.0159101002,cover=6.66107225
booster[165]:
0:leaf=-0.00219822465,cover=9.62314129
booster[166]:
0:[f534<0.951960325] yes=1,no=2,missing=1,gain=0.440271407,cover=15.223485
	1:[f45<0.0027697701] yes=3,no=4,missing=3,gain=0.373276323,cover=10.1009693
		3:leaf=-0.0280370098,cover=5.09787846
		4:leaf=0.00763484603,cover=5.00309086
	2:leaf=0.0221313704,cover=5.1225152
booster[167]:
0:[f78<0.00028310268] yes=1,no=2,missing=1,gain=0.385237932,cover=13.8667278
	1:leaf=-0.0140439495,cover=7.30888414
	2:leaf=0.0171577465,cover=6.55784321
booster[168]:
0:leaf=-0.00214707735,cover=9.56198215
booster[169]:
0:[f45<0.000569123775] yes=1,no=2,missing=1,gain=0.431596279,cover=15.0718565
	1:leaf=-0.0206813589,cover=5.13542604
	2:leaf=0.0124573112,cover=9.93643093
booster[170]:
0:[f48<9.80677851e-06] yes=1,no=2,missing=1,gain=0.385866851,cover=13.7469978
	1:leaf=0.0158873908,cover=7.18852329
	2:leaf=-0.0154484091,cover=6.55847454
booster[171]:
0:leaf=-0.00204742537,cover=9.51288223
booster[172]:
0:[f534<0.951960325] yes=1,no=2,missing=1,gain=0.407029092,cover=15.013711
	1:leaf=-0.010978451,cover=9.97983646
	2:leaf=0.0213533323,cover=5.03387499
booster[173]:
0:[f2<151] yes=1,no=2,missing=1,gain=0.362422228,cover=13.6850414
	1:leaf=0.0128118834,cover=8.68302155
	2:leaf=-0.0184663031,cover=5.00202036
booster[174]:
0:leaf=-0.0020950425,cover=9.46589661
booster[175]:
0:[f45<0.000569123775] yes=1,no=2,missing=1,gain=0.418912768,cover=14.9360323
	1:leaf=-0.0204466395,cover=5.07470179
	2:leaf=0.0123464586,cover=9.86133003
booster[176]:
0:[f524<1195.09375] yes=1,no=2,missing=1,gain=0.36776787,cover=13.5979586
	1:leaf=0.0155640049,cover=7.09066963
	2:leaf=-0.0151703805,cover=6.50728846
booster[177]:
0:leaf=-0.00214241887,cover=9.42972565
booster[178]:
0:[f83<3.91028243e-06] yes=1,no=2,missing=1,gain=0.401000142,cover=14.9090176
	1:leaf=-0.0109081529,cover=9.84237671
	2:leaf=0.0212000962,cover=5.06664038
booster[179]:
0:[f78<0.00028310268] yes=1,no=2,missing=1,gain=0.360798776,cover=13.5879126
	1:leaf=-0.0137758749,cover=7.1443634
	2:leaf=0.0166852567,cover=6.44354868
booster[180]:
0:leaf=-0.00194838888,cover=9.3934927
booster[181]:
0:[f274<9.04845729e-05] yes=1,no=2,missing=1,gain=0.402265519,cover=14.8210468
	1:leaf=-0.0119534722,cover=9.1516161
	2:leaf=0.0196613204,cover=5.66943073
booster[182]:
0:[f524<1195.09375] yes=1,no=2,missing=1,gain=0.34882459,cover=13.4969044
	1:leaf=0.0151064638,cover=7.05009413
	2:leaf=-0.0149246035,cover=6.44681025
booster[183]:
0:leaf=-0.00212357403,cover=9.35665894
booster[184]:
0:[f6<26.1151695] yes=1,no=2,missing=1,gain=0.386886537,cover=14.7881126
	1:leaf=0.01510562,cover=7.80759668
	2:leaf=-0.0152944177,cover=6.98051596
booster[185]:
0:[f78<0.00028310268] yes=1,no=2,missing=1,gain=0.352555096,cover=13.4815722
	1:leaf=-0.0137240952,cover=7.08494568
	2:leaf=0.016489258,cover=6.39662695
booster[186]:
0:leaf=-0.00210061809,cover=9.31897736
booster[187]:
0:[f274<9.04845729e-05] yes=1,no=2,missing=1,gain=0.373704731,cover=14.6822271
	1:leaf=-0.0115033453,cover=9.09301853
	2:leaf=0.0191152822,cover=5.58920813
booster[188]:
0:[f48<9.80677851e-06] yes=1,no=2,missing=1,gain=0.35423556,cover=13.3817987
	1:leaf=0.0153347915,cover=7.00665808
	2:leaf=-0.0150444973,cover=6.37514114
booster[189]:
0:leaf=-0.00212008948,cover=9.27219391
booster[190]:
0:[f286<0.00162570295] yes=1,no=2,missing=1,gain=0.367938042,cover=14.62253
	1:leaf=0.0125454282,cover=9.09081745
	2:leaf=-0.0179180857,cover=5.53171158
booster[191]:
0:[f48<9.80677851e-06] yes=1,no=2,missing=1,gain=0.328640968,cover=13.3186436
	1:leaf=0.0148338024,cover=6.98627663
	2:leaf=-0.0144900978,cover=6.33236647
booster[192]:
0:leaf=-0.00210306584,cover=9.21236801
booster[193]:
0:[f274<9.04845729e-05] yes=1,no=2,missing=1,gain=0.357649416,cover=14.530653
	1:leaf=-0.0113425655,cover=9.01559639
	2:leaf=0.0187593289,cover=5.51505661
booster[194]:
0:[f524<1195.09375] yes=1,no=2,missing=1,gain=0.338459253,cover=13.2230005
	1:leaf=0.0151457367,cover=6.93011665
	2:leaf=-0.0147055406,cover=6.29288387
booster[195]:
0:leaf=-0.0022620589,cover=9.17717361
booster[196]:
0:[f531<1.15220376e-18] yes=1,no=2,missing=1,gain=0.35253641,cover=14.5008106
	1:leaf=-0.0107807778,cover=9.27467442
	2:leaf=0.0193759874,cover=5.22613621
booster[197]:
0:[f78<0.00028310268] yes=1,no=2,missing=1,gain=0.331383258,cover=13.209096
	1:leaf=-0.0132656386,cover=6.93721199
	2:leaf=0.01628807,cover=6.27188444
booster[198]:
0:leaf=-0.00213608891,cover=9.14927578
booster[199]:
0:[f286<0.00162570295] yes=1,no=2,missing=1,gain=0.345397353,cover=14.421483
	1:leaf=0.0122012971,cover=8.99123955
	2:leaf=-0.0175128821,cover=5.43024397
booster[200]:
0:[f524<1195.09375] yes=1,no=2,missing=1,gain=0.315284044,cover=13.1273289
	1:leaf=0.0146515965,cover=6.88754749
	2:leaf=-0.0142517304,cover=6.23978138
booster[201]:
0:leaf=-0.00225238246,cover=9.1010704
booster[202]:
0:[f99<0.000118894153] yes=1,no=2,missing=1,gain=0.347901553,cover=14.3599939
	1:leaf=-0.0105068199,cover=9.35486889
	2:leaf=0.0197490938,cover=5.00512505
booster[203]:
0:[f48<9.80677851e-06] yes=1,no=2,missing=1,gain=0.308927566,cover=13.0802689
	1:leaf=0.0145742344,cover=6.86239862
	2:leaf=-0.0140811568,cover=6.21787024
booster[204]:
0:leaf=-0.00206855848,cover=9.05928516
booster[205]:
0:[f6<26.1151695] yes=1,no=2,missing=1,gain=0.350418717,cover=14.3009214
	1:leaf=0.0145407096,cover=7.55500317
	2:leaf=-0.0148206428,cover=6.7459178
booster[206]:
0:[f78<0.00028310268] yes=1,no=2,missing=1,gain=0.304223984,cover=13.0074844
	1:leaf=-0.0128698638,cover=6.83880806
	2:leaf=0.0156369619,cover=6.16867685
booster[207]:
0:leaf=-0.00204640604,cover=9.02568436
booster[208]:
0:[f274<9.04845729e-05] yes=1,no=2,missing=1,gain=0.343054712,cover=14.2050438
	1:leaf=-0.0111495936,cover=8.85540676
	2:leaf=0.0186571144,cover=5.34963703
booster[209]:
0:[f524<1195.09375] yes=1,no=2,missing=1,gain=0.320663512,cover=12.9182177
	1:leaf=0.0148108918,cover=6.79803324
	2:leaf=-0.0145447468,cover=6.12018394
booster[210]:
0:leaf=-0.00220572343,cover=8.99178314
booster[211]:
0:[f130<1.50936021e-05] yes=1,no=2,missing=1,gain=0.326832891,cover=14.1763277
	1:leaf=0.0147503903,cover=7.12842321
	2:leaf=-0.0136800976,cover=7.04790449
booster[212]:
0:[f279<1.17753098e-05] yes=1,no=2,missing=1,gain=0.293760836,cover=12.9048786
	1:leaf=-0.0121004032,cover=7.07005215
	2:leaf=0.0160777606,cover=5.83482599
booster[213]:
0:leaf=-0.00223181094,cover=8.95641613
booster[214]:
0:[f531<1.15220376e-18] yes=1,no=2,missing=1,gain=0.329157889,cover=14.1062984
	1:leaf=-0.0104946047,cover=9.04778767
	2:leaf=0.019018013,cover=5.0585103
booster[215]:
0:[f48<9.80677851e-06] yes=1,no=2,missing=1,gain=0.292621106,cover=12.8342571
	1:leaf=0.0142804235,cover=6.74370241
	2:leaf=-0.013840354,cover=6.09055424
booster[216]:
0:leaf=-0.00212909142,cover=8.91814327
booster[217]:
0:[f6<26.1151695] yes=1,no=2,missing=1,gain=0.316750497,cover=14.0481653
	1:leaf=0.0140023446,cover=7.39863396
	2:leaf=-0.0141280219,cover=6.64953184
booster[218]:
0:[f524<1195.09375] yes=1,no=2,missing=1,gain=0.296182841,cover=12.7661858
	1:leaf=0.0142896865,cover=6.73479939
	2:leaf=-0.014071052,cover=6.0313859
booster[219]:
0:leaf=-0.00225831638,cover=8.88289356
booster[220]:
0:[f274<9.04845729e-05] yes=1,no=2,missing=1,gain=0.311004281,cover=13.9980145
	1:leaf=-0.0105155148,cover=8.75484943
	2:leaf=0.0180692095,cover=5.24316502
booster[221]:
0:[f524<1195.09375] yes=1,no=2,missing=1,gain=0.277088135,cover=12.7300739
	1:leaf=0.0138789294,cover=6.72721958
	2:leaf=-0.0135885552,cover=6.00285435
booster[222]:
0:leaf=-0.00239171367,cover=8.85098553
booster[223]:
0:[f286<0.000201606264] yes=1,no=2,missing=1,gain=0.313794941,cover=13.9716454
	1:leaf=0.0159902927,cover=6.29530144
	2:leaf=-0.012151015,cover=7.67634392
booster[224]:
0:[f78<0.00028310268] yes=1,no=2,missing=1,gain=0.291555464,cover=12.7185001
	1:leaf=-0.012636899,cover=6.68035507
	2:leaf=0.0155423051,cover=6.03814507
booster[225]:
0:leaf=-0.00229025679,cover=8.81384659
booster[226]:
0:[f99<4.6421439e-05] yes=1,no=2,missing=1,gain=0.29829523,cover=13.876585
	1:leaf=-0.0102064107,cover=8.75722218
	2:leaf=0.0179591421,cover=5.11936283
booster[227]:
0:[f48<9.80677851e-06] yes=1,no=2,missing=1,gain=0.280101269,cover=12.6265154
	1:leaf=0.0140489563,cover=6.64982843
	2:leaf=-0.0136609497,cover=5.97668648
booster[228]:
0:leaf=-0.00208539329,cover=8.77833462
booster[229]:
0:[f6<26.1151695] yes=1,no=2,missing=1,gain=0.30087626,cover=13.8254786
	1:leaf=0.013795373,cover=7.27957296
	2:leaf=-0.0138131669,cover=6.54590511
booster[230]:
0:[f29<0.00116505823] yes=1,no=2,missing=1,gain=0.276453972,cover=12.559473
	1:leaf=-0.0115790544,cover=7.10753489
	2:leaf=0.0161629505,cover=5.45193815
booster[231]:
0:leaf=-0.00211167987,cover=8.75759411
booster[232]:
0:[f274<9.04845729e-05] yes=1,no=2,missing=1,gain=0.299705118,cover=13.7649374
	1:leaf=-0.0103883743,cover=8.64266109
	2:leaf=0.0179037806,cover=5.12227583
booster[233]:
0:[f524<1195.09375] yes=1,no=2,missing=1,gain=0.27344498,cover=12.5273218
	1:leaf=0.0138368038,cover=6.61752367
	2:leaf=-0.0136382496,cover=5.90979767
booster[234]:
0:leaf=-0.00225243228,cover=8.72663784
booster[235]:
0:[f537<0.017474819] yes=1,no=2,missing=1,gain=0.294667393,cover=13.7392607
	1:leaf=0.0150575368,cover=6.47305918
	2:leaf=-0.0123450058,cover=7.2662015
booster[236]:
0:[f279<1.17753098e-05] yes=1,no=2,missing=1,gain=0.275594205,cover=12.5156059
	1:leaf=-0.0118618403,cover=6.87807751
	2:leaf=0.015800681,cover=5.6375289
booster[237]:
0:leaf=-0.00225094566,cover=8.69478798
booster[238]:
0:[f99<4.6421439e-05] yes=1,no=2,missing=1,gain=0.288157076,cover=13.6710606
	1:leaf=-0.0100711277,cover=8.63142776
	2:leaf=0.0177932363,cover=5.03963327
booster[239]:
0:[f48<9.80677851e-06] yes=1,no=2,missing=1,gain=0.269792855,cover=12.4504242
	1:leaf=0.0138218496,cover=6.5657959
	2:leaf=-0.0135397455,cover=5.8846283
booster[240]:
0:leaf=-0.00204843143,cover=8.66024303
booster[241]:
0:[f274<9.04845729e-05] yes=1,no=2,missing=1,gain=0.287748963,cover=13.6211939
	1:leaf=-0.0101685254,cover=8.55406761
	2:leaf=0.0176806375,cover=5.06712723
booster[242]:
0:[f524<1195.09375] yes=1,no=2,missing=1,gain=0.26121217,cover=12.3849611
	1:leaf=0.0134914564,cover=6.5518446
	2:leaf=-0.0134955961,cover=5.83311653
booster[243]:
0:leaf=-0.00218931283,cover=8.63026142
booster[244]:
0:[f286<0.00162570295] yes=1,no=2,missing=1,gain=0.293926477,cover=13.5961113
	1:leaf=0.0116543574,cover=8.53587723
	2:leaf=-0.0165127497,cover=5.06023455
booster[245]:
0:[f78<0.00028310268] yes=1,no=2,missing=1,gain=0.267236561,cover=12.3732719
	1:leaf=-0.012386567,cover=6.48402071
	2:leaf=0.0149104213,cover=5.88925076
booster[246]:
0:leaf=-0.00213629357,cover=8.59114265
booster[247]:
0:[f274<9.04845729e-05] yes=1,no=2,missing=1,gain=0.271443903,cover=13.506567
	1:leaf=-0.00989354867,cover=8.50088692
	2:leaf=0.0172688607,cover=5.00567961
booster[248]:
0:[f29<0.00116505823] yes=1,no=2,missing=1,gain=0.248722956,cover=12.2882042
	1:leaf=-0.0110799056,cover=6.91892767
	2:leaf=0.0154674891,cover=5.36927652
booster[249]:
0:leaf=-0.00217033341,cover=8.57444572
booster[250]:
0:[f537<0.017474819] yes=1,no=2,missing=1,gain=0.27144894,cover=13.4702339
	1:leaf=0.0145874275,cover=6.32497263
	2:leaf=-0.011944552,cover=7.14526129
booster[251]:
0:[f48<9.80677851e-06] yes=1,no=2,missing=1,gain=0.256709188,cover=12.2790413
	1:leaf=0.0135770412,cover=6.47644806
	2:leaf=-0.0132727865,cover=5.80259323
booster[252]:
0:leaf=-0.00209307461,cover=8.53314781
booster[253]:
0:[f45<0.00083732896] yes=1,no=2,missing=1,gain=0.270875901,cover=13.4029255
	1:leaf=-0.0141069861,cover=5.9152112
	2:leaf=0.0125565743,cover=7.48771429
booster[254]:
0:[f524<1195.09375] yes=1,no=2,missing=1,gain=0.250982821,cover=12.2054672
	1:leaf=0.0134184239,cover=6.45558214
	2:leaf=-0.0132020563,cover=5.74988508
booster[255]:
0:leaf=-0.00211599469,cover=8.50648499
booster[256]:
0:[f286<0.000201606264] yes=1,no=2,missing=1,gain=0.269192815,cover=13.3902397
	1:leaf=0.0150876315,cover=6.00783491
	2:leaf=-0.0114713581,cover=7.3824048
booster[257]:
0:[f78<0.00028310268] yes=1,no=2,missing=1,gain=0.255045235,cover=12.2019835
	1:leaf=-0.0121590449,cover=6.37147617
	2:leaf=0.0146653457,cover=5.83050776
booster[258]:
0:leaf=-0.0020284364,cover=8.47418404
booster[259]:
0:[f45<0.00083732896] yes=1,no=2,missing=1,gain=0.25845322,cover=13.3059158
	1:leaf=-0.0137961684,cover=5.88563395
	2:leaf=0.0123263504,cover=7.42028189
booster[260]:
0:[f2<145.5] yes=1,no=2,missing=1,gain=0.246547282,cover=12.1204958
	1:leaf=0.0124710193,cover=6.89628506
	2:leaf=-0.0141468421,cover=5.22421122
booster[261]:
0:leaf=-0.00203260547,cover=8.44116688
booster[262]:
0:[f6<26.1151695] yes=1,no=2,missing=1,gain=0.270407528,cover=13.2856894
	1:leaf=0.0133901238,cover=6.94422388
	2:leaf=-0.0132334298,cover=6.34146547
booster[263]:
0:[f48<9.80677851e-06] yes=1,no=2,missing=1,gain=0.238827735,cover=12.0905695
	1:leaf=0.0130931409,cover=6.39714384
	2:leaf=-0.0129803633,cover=5.69342518
booster[264]:
0:leaf=-0.00202313229,cover=8.40338326
booster[265]:
0:[f6<26.1151695] yes=1,no=2,missing=1,gain=0.251867712,cover=13.2208986
	1:leaf=0.0129224556,cover=6.91512585
	2:leaf=-0.0128273321,cover=6.30577278
booster[266]:
0:[f524<1195.09375] yes=1,no=2,missing=1,gain=0.243269682,cover=12.0232086
	1:leaf=0.0132459169,cover=6.37857628
	2:leaf=-0.0131355748,cover=5.64463234
booster[267]:
0:leaf=-0.00214088871,cover=8.37342548
booster[268]:
0:[f45<0.00083732896] yes=1,no=2,missing=1,gain=0.247310475,cover=13.1797485
	1:leaf=-0.0135199996,cover=5.82339954
	2:leaf=0.012141346,cover=7.35634947
booster[269]:
0:[f279<1.17753098e-05] yes=1,no=2,missing=1,gain=0.245093331,cover=11.9930601
	1:leaf=-0.0113882553,cover=6.58590937
	2:leaf=0.0151787922,cover=5.40715075
booster[270]:
0:leaf=-0.00210560882,cover=8.35147285
booster[271]:
0:[f537<0.017474819] yes=1,no=2,missing=1,gain=0.250246316,cover=13.1488037
	1:leaf=0.0141981067,cover=6.1470561
	2:leaf=-0.0115502886,cover=7.00174761
booster[272]:
0:[f2<145.5] yes=1,no=2,missing=1,gain=0.237780675,cover=11.9641876
	1:leaf=0.0123427985,cover=6.81242085
	2:leaf=-0.0139453774,cover=5.15176725
booster[273]:
0:leaf=-0.00214012759,cover=8.3133707
booster[274]:
0:[f275<4.56014895e-05] yes=1,no=2,missing=1,gain=0.242262021,cover=13.0988436
	1:leaf=-0.00979967322,cover=7.99293137
	2:leaf=0.0160126891,cover=5.10591173
booster[275]:
0:[f301<3.83388533e-06] yes=1,no=2,missing=1,gain=0.23580496,cover=11.9050608
	1:leaf=0.0136815263,cover=5.99660969
	2:leaf=-0.0123669943,cover=5.9084506
booster[276]:
0:leaf=-0.00218457985,cover=8.29140759
booster[277]:
0:[f286<0.000201606264] yes=1,no=2,missing=1,gain=0.242749885,cover=13.0623455
	1:leaf=0.0145766428,cover=5.84256363
	2:leaf=-0.0109226508,cover=7.21978188
booster[278]:
0:[f78<0.00028310268] yes=1,no=2,missing=1,gain=0.232823387,cover=11.8892117
	1:leaf=-0.0117505575,cover=6.19232464
	2:leaf=0.0141635733,cover=5.69688702
booster[279]:
0:leaf=-0.00209434214,cover=8.26150703
booster[280]:
0:[f45<0.00083732896] yes=1,no=2,missing=1,gain=0.246072516,cover=12.9840603
	1:leaf=-0.0135511104,cover=5.74556923
	2:leaf=0.0122090532,cover=7.23849106
booster[281]:
0:[f524<1195.09375] yes=1,no=2,missing=1,gain=0.234686002,cover=11.8134384
	1:leaf=0.0131108463,cover=6.26818085
	2:leaf=-0.0129971104,cover=5.54525757
booster[282]:
0:leaf=-0.00211336184,cover=8.23650646
booster[283]:
0:[f6<26.1151695] yes=1,no=2,missing=1,gain=0.238265842,cover=12.9723549
	1:leaf=0.0128034716,cover=6.76278973
	2:leaf=-0.0124460496,cover=6.20956516
booster[284]:
0:[f48<9.80677851e-06] yes=1,no=2,missing=1,gain=0.235887527,cover=11.8094883
	1:leaf=0.0131363347,cover=6.25598049
	2:leaf=-0.0130398842,cover=5.5535078
booster[285]:
0:leaf=-0.00209475216,cover=8.20087624
booster[286]:
0:[f521<3.67744684] yes=1,no=2,missing=1,gain=0.230972528,cover=12.9121361
	1:leaf=0.0121777272,cover=6.99598694
	2:leaf=-0.0127807697,cover=5.91614914
booster[287]:
0:[f2<145.5] yes=1,no=2,missing=1,gain=0.227811947,cover=11.7452927
	1:leaf=0.0121687558,cover=6.69333935
	2:leaf=-0.0137681207,cover=5.05195379
booster[288]:
0:leaf=-0.00210983539,cover=8.16598415
booster[289]:
0:[f6<26.1151695] yes=1,no=2,missing=1,gain=0.234273747,cover=12.8756704
	1:leaf=0.0127084153,cover=6.72404861
	2:leaf=-0.0124113159,cover=6.1516223
booster[290]:
0:[f29<0.00116505823] yes=1,no=2,missing=1,gain=0.231189817,cover=11.6992149
	1:leaf=-0.0110276071,cover=6.53395176
	2:leaf=0.0150878904,cover=5.1652627
booster[291]:
0:leaf=-0.00212435308,cover=8.1494627
booster[292]:
0:[f45<0.00083732896] yes=1,no=2,missing=1,gain=0.233726293,cover=12.8247252
	1:leaf=-0.0132978261,cover=5.66320944
	2:leaf=0.0119460374,cover=7.16151524
booster[293]:
0:[f48<9.80677851e-06] yes=1,no=2,missing=1,gain=0.221826032,cover=11.6715899
	1:leaf=0.0128686866,cover=6.1891346
	2:leaf=-0.0126448423,cover=5.48245573
booster[294]:
0:leaf=-0.00201234897,cover=8.11899567
booster[295]:
0:[f130<8.57793348e-05] yes=1,no=2,missing=1,gain=0.228185073,cover=12.793128
	1:leaf=0.0115825934,cover=7.27138186
	2:leaf=-0.0134343309,cover=5.52174616
booster[296]:
0:[f279<1.17753098e-05] yes=1,no=2,missing=1,gain=0.224107876,cover=11.6339436
	1:leaf=-0.0110535584,cover=6.38285875
	2:leaf=0.014680448,cover=5.25108433
booster[297]:
0:leaf=-0.00206746045,cover=8.09241486
booster[298]:
0:[f45<0.00083732896] yes=1,no=2,missing=1,gain=0.226440862,cover=12.739851
	1:leaf=-0.0131575381,cover=5.6327939
	2:leaf=0.0117582604,cover=7.10705757
booster[299]:
0:[f301<3.83388533e-06] yes=1,no=2,missing=1,gain=0.225726277,cover=11.5799694
	1:leaf=0.0136056319,cover=5.83231354
	2:leaf=-0.0121839968,cover=5.74765539
